digraph Tree {
node [shape=box, style="filled, rounded", color="black", fontname="helvetica"] ;
edge [fontname="helvetica"] ;
0 [label=<HUMIDITY &le; 79.036<br/>squared_error = 6720.657<br/>samples = 24002<br/>value = 1103.459>, fillcolor="#f3c3a0"] ;
1 [label=<SUNLIGHT &le; 1799.777<br/>squared_error = 2138.646<br/>samples = 12636<br/>value = 1045.031>, fillcolor="#f8decb"] ;
0 -> 1 [labeldistance=2.5, labelangle=45, headlabel="True"] ;
2 [label=<HUMIDITY &le; 67.282<br/>squared_error = 211.497<br/>samples = 1747<br/>value = 991.163>, fillcolor="#fdf7f3"] ;
1 -> 2 ;
3 [label=<HUMIDITY &le; 65.001<br/>squared_error = 78.629<br/>samples = 486<br/>value = 1005.158>, fillcolor="#fcf1e9"] ;
2 -> 3 ;
4 [label=<HUMIDITY &le; 64.789<br/>squared_error = 15.185<br/>samples = 132<br/>value = 994.011>, fillcolor="#fdf6f1"] ;
3 -> 4 ;
5 [label=<squared_error = 6.792<br/>samples = 50<br/>value = 991.73>, fillcolor="#fdf7f2"] ;
4 -> 5 ;
6 [label=<squared_error = 15.195<br/>samples = 82<br/>value = 995.402>, fillcolor="#fdf5f0"] ;
4 -> 6 ;
7 [label=<SUNLIGHT &le; 1630.814<br/>squared_error = 38.682<br/>samples = 354<br/>value = 1009.314>, fillcolor="#fcefe6"] ;
3 -> 7 ;
8 [label=<squared_error = 6.308<br/>samples = 59<br/>value = 999.11>, fillcolor="#fdf4ed"] ;
7 -> 8 ;
9 [label=<squared_error = 20.167<br/>samples = 295<br/>value = 1011.355>, fillcolor="#fbeee4"] ;
7 -> 9 ;
10 [label=<HUMIDITY &le; 70.8<br/>squared_error = 158.132<br/>samples = 1261<br/>value = 985.77>, fillcolor="#fefaf7"] ;
2 -> 10 ;
11 [label=<SUNLIGHT &le; 1514.217<br/>squared_error = 69.577<br/>samples = 778<br/>value = 977.923>, fillcolor="#fffdfd"] ;
10 -> 11 ;
12 [label=<squared_error = 50.042<br/>samples = 286<br/>value = 983.726>, fillcolor="#fefbf8"] ;
11 -> 12 ;
13 [label=<squared_error = 49.986<br/>samples = 492<br/>value = 974.55>, fillcolor="#ffffff"] ;
11 -> 13 ;
14 [label=<SUNLIGHT &le; 1406.751<br/>squared_error = 41.864<br/>samples = 483<br/>value = 998.408>, fillcolor="#fdf4ee"] ;
10 -> 14 ;
15 [label=<squared_error = 8.857<br/>samples = 223<br/>value = 1002.96>, fillcolor="#fcf2ea"] ;
14 -> 15 ;
16 [label=<squared_error = 37.171<br/>samples = 260<br/>value = 994.505>, fillcolor="#fdf6f0"] ;
14 -> 16 ;
17 [label=<HUMIDITY &le; 68.004<br/>squared_error = 1907.605<br/>samples = 10889<br/>value = 1053.673>, fillcolor="#f7dac5"] ;
1 -> 17 ;
18 [label=<SUNLIGHT &le; 2285.607<br/>squared_error = 716.179<br/>samples = 2751<br/>value = 1017.922>, fillcolor="#fbebdf"] ;
17 -> 18 ;
19 [label=<SUNLIGHT &le; 1947.876<br/>squared_error = 408.338<br/>samples = 2495<br/>value = 1012.112>, fillcolor="#fbede3"] ;
18 -> 19 ;
20 [label=<squared_error = 164.84<br/>samples = 597<br/>value = 987.806>, fillcolor="#fef9f5"] ;
19 -> 20 ;
21 [label=<squared_error = 240.638<br/>samples = 1898<br/>value = 1019.758>, fillcolor="#fbeade"] ;
19 -> 21 ;
22 [label=<SUNLIGHT &le; 2377.396<br/>squared_error = 181.664<br/>samples = 256<br/>value = 1074.542>, fillcolor="#f5d0b6"] ;
18 -> 22 ;
23 [label=<squared_error = 49.152<br/>samples = 119<br/>value = 1062.088>, fillcolor="#f7d6bf"] ;
22 -> 23 ;
24 [label=<squared_error = 45.029<br/>samples = 137<br/>value = 1085.359>, fillcolor="#f4cbae"] ;
22 -> 24 ;
25 [label=<SUNLIGHT &le; 2898.812<br/>squared_error = 1732.238<br/>samples = 8138<br/>value = 1065.758>, fillcolor="#f6d4bc"] ;
17 -> 25 ;
26 [label=<min_sun &le; 11070626.5<br/>squared_error = 472.656<br/>samples = 5687<br/>value = 1057.288>, fillcolor="#f7d8c2"] ;
25 -> 26 ;
27 [label=<squared_error = 375.0<br/>samples = 5209<br/>value = 1054.082>, fillcolor="#f7dac5"] ;
26 -> 27 ;
28 [label=<squared_error = 204.255<br/>samples = 478<br/>value = 1092.225>, fillcolor="#f4c8a9"] ;
26 -> 28 ;
29 [label=<SUNLIGHT &le; 3246.084<br/>squared_error = 4102.088<br/>samples = 2451<br/>value = 1085.412>, fillcolor="#f4cbae"] ;
25 -> 29 ;
30 [label=<squared_error = 3937.589<br/>samples = 1094<br/>value = 1124.971>, fillcolor="#f1b991"] ;
29 -> 30 ;
31 [label=<squared_error = 1955.932<br/>samples = 1357<br/>value = 1053.519>, fillcolor="#f7dac5"] ;
29 -> 31 ;
32 [label=<SUNLIGHT &le; 2765.689<br/>squared_error = 3799.907<br/>samples = 11366<br/>value = 1168.416>, fillcolor="#eca571"] ;
0 -> 32 [labeldistance=2.5, labelangle=-45, headlabel="False"] ;
33 [label=<min_sun &le; 13412167.5<br/>squared_error = 2026.908<br/>samples = 3068<br/>value = 1101.08>, fillcolor="#f3c4a2"] ;
32 -> 33 ;
34 [label=<hum_diff &le; 10.924<br/>squared_error = 686.467<br/>samples = 2699<br/>value = 1087.157>, fillcolor="#f4caac"] ;
33 -> 34 ;
35 [label=<min_sun &le; 9197602.0<br/>squared_error = 346.335<br/>samples = 1756<br/>value = 1072.856>, fillcolor="#f6d1b7"] ;
34 -> 35 ;
36 [label=<squared_error = 65.205<br/>samples = 882<br/>value = 1061.029>, fillcolor="#f7d7c0"] ;
35 -> 36 ;
37 [label=<squared_error = 346.436<br/>samples = 874<br/>value = 1084.791>, fillcolor="#f4ccae"] ;
35 -> 37 ;
38 [label=<SUNLIGHT &le; 1693.878<br/>squared_error = 229.811<br/>samples = 943<br/>value = 1113.788>, fillcolor="#f2be99"] ;
34 -> 38 ;
39 [label=<squared_error = 64.365<br/>samples = 154<br/>value = 1083.156>, fillcolor="#f5ccaf"] ;
38 -> 39 ;
40 [label=<squared_error = 43.215<br/>samples = 789<br/>value = 1119.766>, fillcolor="#f1bb94"] ;
38 -> 40 ;
41 [label=<HUMIDITY &le; 80.85<br/>squared_error = 43.078<br/>samples = 369<br/>value = 1202.915>, fillcolor="#e99457"] ;
33 -> 41 ;
42 [label=<HUMIDITY &le; 79.583<br/>squared_error = 28.104<br/>samples = 225<br/>value = 1204.926>, fillcolor="#e99356"] ;
41 -> 42 ;
43 [label=<squared_error = 3.418<br/>samples = 92<br/>value = 1199.511>, fillcolor="#e9965a"] ;
42 -> 43 ;
44 [label=<squared_error = 10.871<br/>samples = 133<br/>value = 1208.671>, fillcolor="#e89253"] ;
42 -> 44 ;
45 [label=<HUMIDITY &le; 81.943<br/>squared_error = 50.294<br/>samples = 144<br/>value = 1199.774>, fillcolor="#e9965a"] ;
41 -> 45 ;
46 [label=<squared_error = 24.957<br/>samples = 94<br/>value = 1195.963>, fillcolor="#ea985d"] ;
45 -> 46 ;
47 [label=<squared_error = 19.266<br/>samples = 50<br/>value = 1206.94>, fillcolor="#e99355"] ;
45 -> 47 ;
48 [label=<min_sun &le; 7345440.25<br/>squared_error = 2159.217<br/>samples = 8298<br/>value = 1193.312>, fillcolor="#ea995f"] ;
32 -> 48 ;
49 [label=<SUNLIGHT &le; 3914.662<br/>squared_error = 390.241<br/>samples = 5457<br/>value = 1212.463>, fillcolor="#e89050"] ;
48 -> 49 ;
50 [label=<min_sun &le; 756.839<br/>squared_error = 183.251<br/>samples = 3471<br/>value = 1201.639>, fillcolor="#e99558"] ;
49 -> 50 ;
51 [label=<squared_error = 177.558<br/>samples = 2513<br/>value = 1198.434>, fillcolor="#e9965b"] ;
50 -> 51 ;
52 [label=<squared_error = 100.595<br/>samples = 958<br/>value = 1210.044>, fillcolor="#e89152"] ;
50 -> 52 ;
53 [label=<HUMIDITY &le; 91.455<br/>squared_error = 189.331<br/>samples = 1986<br/>value = 1231.381>, fillcolor="#e68743"] ;
49 -> 53 ;
54 [label=<squared_error = 173.934<br/>samples = 1600<br/>value = 1228.218>, fillcolor="#e78945"] ;
53 -> 54 ;
55 [label=<squared_error = 39.846<br/>samples = 386<br/>value = 1244.49>, fillcolor="#e58139"] ;
53 -> 55 ;
56 [label=<hum_diff &le; 14.663<br/>squared_error = 3499.456<br/>samples = 2841<br/>value = 1156.527>, fillcolor="#edaa7a"] ;
48 -> 56 ;
57 [label=<min_sun &le; 9400018.0<br/>squared_error = 3129.091<br/>samples = 2385<br/>value = 1145.647>, fillcolor="#efaf82"] ;
56 -> 57 ;
58 [label=<squared_error = 139.027<br/>samples = 522<br/>value = 1096.6>, fillcolor="#f3c6a5"] ;
57 -> 58 ;
59 [label=<squared_error = 3103.992<br/>samples = 1863<br/>value = 1159.39>, fillcolor="#eda977"] ;
57 -> 59 ;
60 [label=<min_sun &le; 11805709.0<br/>squared_error = 1579.386<br/>samples = 456<br/>value = 1213.431>, fillcolor="#e88f50"] ;
56 -> 60 ;
61 [label=<squared_error = 53.191<br/>samples = 395<br/>value = 1228.816>, fillcolor="#e78844"] ;
60 -> 61 ;
62 [label=<squared_error = 3.629<br/>samples = 61<br/>value = 1113.803>, fillcolor="#f2be99"] ;
60 -> 62 ;
}